{"levels":[{"inputs":[0.55779428015642,0.21524441203324685,0,0,0],"outputs":[1,1,0,0,0,1],"biases":[0.030070596958325785,-0.14016486525069588,0.006031855708831371,0.04896688919578271,0.07621527219855258,-0.10423291816144883],"weights":[[0.3697449830515894,0.2522804745034778,-0.14804447081292607,-0.14307921465695492,-0.286433589702483,-0.08635784859375367],[-0.11218522015513276,-0.17082457549908725,-0.040140369870703074,-0.0016133149146402431,-0.016602986766014433,-0.24476489201028362],[0.04630292189683428,0.22205079543475315,0.23689752259773472,-0.12632928942543997,-0.1469851709171227,-0.36033205904411564],[0.0057322752594982165,-0.03523929526276187,0.012765585624206259,0.04521474656566061,0.048383812457271476,0.23566751505676353],[0.0785560974513434,-0.08801244585201115,0.010777568262125191,0.09520839257241795,0.20914901936266933,-0.012569899460207867]]},{"inputs":[1,1,0,0,0,1],"outputs":[1,0,0,0],"biases":[-0.18920580354087327,-0.027645506109080103,-0.07236403936629275,0.13209978237114955],"weights":[[-0.041542490915158464,0.0363601533798108,0.09446049774311863,-0.13046546147507004,-0.1786659633363764,0.1112555648978781],[-0.06942597416494045,-0.18746666083976504,-0.029549832625163815,-0.020619568052175012,-0.09115182390165107,0.08443746198222626],[-0.07436746539159905,-0.011109413697300312,0.19834350178428048,-0.2748133139895828,0.16055673592871714,-0.0015031370919419557],[-0.20738701916551128,0.07348363963288311,-0.09893525496012201,0.08449504878734554,-0.06069886737456448,-0.050518056980226565],[0.025434656058736696,0.1808871044747703,-0.23646804799602955,0.3575406549904847,-0.10739417189260336,-0.08568473705645181],[0.1979719868389625,0.04459741602087164,-0.22886937799525334,-0.046487930571769566,-0.3011346255315699,0.09298572711045996]]}]}

